<?xml version="1.0"?>
<opencv_storage>
<stage11>
  <maxWeakCount>37</maxWeakCount>
  <stageThreshold>-1.2444115877151489e+00</stageThreshold>
  <weakClassifiers>
    <_>
      <internalNodes>
        0 -1 107331 3.7788834422826767e-02</internalNodes>
      <leafValues>
        -2.7023661136627197e-01 3.5018050670623779e-01</leafValues></_>
    <_>
      <internalNodes>
        0 -1 158401 -2.5674611330032349e-02</internalNodes>
      <leafValues>
        5.6772291660308838e-01 -1.0854692012071609e-01</leafValues></_>
    <_>
      <internalNodes>
        0 -1 164482 -7.2714760899543762e-02</internalNodes>
      <leafValues>
        4.8465240001678467e-01 -9.1772198677062988e-02</leafValues></_>
    <_>
      <internalNodes>
        0 -1 73873 -5.2180454134941101e-02</internalNodes>
      <leafValues>
        3.1025445461273193e-01 -1.8681837618350983e-01</leafValues></_>
    <_>
      <internalNodes>
        0 -1 144312 1.4023628085851669e-02</internalNodes>
      <leafValues>
        -9.4545543193817139e-02 4.7414010763168335e-01</leafValues></_>
    <_>
      <internalNodes>
        0 -1 82150 -1.5143744647502899e-02</internalNodes>
      <leafValues>
        4.6333405375480652e-01 -1.4047123491764069e-01</leafValues></_>
    <_>
      <internalNodes>
        0 -1 95039 2.6077497750520706e-02</internalNodes>
      <leafValues>
        1.1020378768444061e-01 -5.8024770021438599e-01</leafValues></_>
    <_>
      <internalNodes>
        0 -1 43456 1.3953241705894470e-01</internalNodes>
      <leafValues>
        -1.2051960080862045e-01 3.8367402553558350e-01</leafValues></_>
    <_>
      <internalNodes>
        0 -1 34138 -4.6046883799135685e-03</internalNodes>
      <leafValues>
        4.6220085024833679e-01 -1.2500786781311035e-01</leafValues></_>
    <_>
      <internalNodes>
        0 -1 170106 1.2830186635255814e-02</internalNodes>
      <leafValues>
        -1.2774895131587982e-01 3.4055757522583008e-01</leafValues></_>
    <_>
      <internalNodes>
        0 -1 150312 1.9993504509329796e-02</internalNodes>
      <leafValues>
        -5.3912404924631119e-02 5.6229716539382935e-01</leafValues></_>
    <_>
      <internalNodes>
        0 -1 126561 -1.5540678054094315e-02</internalNodes>
      <leafValues>
        5.4251742362976074e-01 -8.2910999655723572e-02</leafValues></_>
    <_>
      <internalNodes>
        0 -1 113923 -4.6986758708953857e-02</internalNodes>
      <leafValues>
        -6.3651216030120850e-01 6.6104188561439514e-02</leafValues></_>
    <_>
      <internalNodes>
        0 -1 93473 -1.0964100249111652e-02</internalNodes>
      <leafValues>
        5.3005701303482056e-01 -7.3914356529712677e-02</leafValues></_>
    <_>
      <internalNodes>
        0 -1 94302 -6.9131692871451378e-03</internalNodes>
      <leafValues>
        4.1630786657333374e-01 -1.0059352964162827e-01</leafValues></_>
    <_>
      <internalNodes>
        0 -1 124296 -7.1132217999547720e-04</internalNodes>
      <leafValues>
        2.9685342311859131e-01 -1.5068165957927704e-01</leafValues></_>
    <_>
      <internalNodes>
        0 -1 10931 3.2338358461856842e-02</internalNodes>
      <leafValues>
        -9.3919694423675537e-02 4.6424871683120728e-01</leafValues></_>
    <_>
      <internalNodes>
        0 -1 136014 -2.8153873980045319e-02</internalNodes>
      <leafValues>
        -5.6726908683776855e-01 8.2442119717597961e-02</leafValues></_>
    <_>
      <internalNodes>
        0 -1 171017 -4.9830310046672821e-02</internalNodes>
      <leafValues>
        6.4995956420898438e-01 -6.7386962473392487e-02</leafValues></_>
    <_>
      <internalNodes>
        0 -1 154982 -1.3795463368296623e-02</internalNodes>
      <leafValues>
        -3.9591941237449646e-01 1.1962895095348358e-01</leafValues></_>
    <_>
      <internalNodes>
        0 -1 147960 -5.9270136989653111e-03</internalNodes>
      <leafValues>
        -4.8867976665496826e-01 8.6229324340820312e-02</leafValues></_>
    <_>
      <internalNodes>
        0 -1 110260 -3.0345874838531017e-03</internalNodes>
      <leafValues>
        -5.6834030151367188e-01 5.8158464729785919e-02</leafValues></_>
    <_>
      <internalNodes>
        0 -1 110260 2.6740971952676773e-03</internalNodes>
      <leafValues>
        5.9217721223831177e-02 -5.3887367248535156e-01</leafValues></_>
    <_>
      <internalNodes>
        0 -1 143853 -3.8293078541755676e-02</internalNodes>
      <leafValues>
        -6.9380372762680054e-01 4.8445254564285278e-02</leafValues></_>
    <_>
      <internalNodes>
        0 -1 162751 -4.3708540499210358e-02</internalNodes>
      <leafValues>
        2.8660762310028076e-01 -1.3152629137039185e-01</leafValues></_>
    <_>
      <internalNodes>
        0 -1 173402 1.1807098984718323e-02</internalNodes>
      <leafValues>
        -1.4710272848606110e-01 3.6799418926239014e-01</leafValues></_>
    <_>
      <internalNodes>
        0 -1 95407 -8.2522314041852951e-03</internalNodes>
      <leafValues>
        3.5872107744216919e-01 -1.1614254117012024e-01</leafValues></_>
    <_>
      <internalNodes>
        0 -1 87548 -9.2218015342950821e-03</internalNodes>
      <leafValues>
        -4.8078271746635437e-01 1.0269101709127426e-01</leafValues></_>
    <_>
      <internalNodes>
        0 -1 169887 3.4846714697778225e-03</internalNodes>
      <leafValues>
        3.1524676829576492e-02 -8.4314525127410889e-01</leafValues></_>
    <_>
      <internalNodes>
        0 -1 135625 -7.7218055725097656e-02</internalNodes>
      <leafValues>
        -7.6415735483169556e-01 3.6708001047372818e-02</leafValues></_>
    <_>
      <internalNodes>
        0 -1 153007 -4.6545467339456081e-03</internalNodes>
      <leafValues>
        3.0920723080635071e-01 -1.3107049465179443e-01</leafValues></_>
    <_>
      <internalNodes>
        0 -1 96870 -6.2259569764137268e-02</internalNodes>
      <leafValues>
        3.6439582705497742e-01 -1.1281140893697739e-01</leafValues></_>
    <_>
      <internalNodes>
        0 -1 77515 -2.9443022795021534e-03</internalNodes>
      <leafValues>
        -7.2564011812210083e-01 5.4513383656740189e-02</leafValues></_>
    <_>
      <internalNodes>
        0 -1 127766 -4.9279276281595230e-03</internalNodes>
      <leafValues>
        3.3657532930374146e-01 -1.1549259722232819e-01</leafValues></_>
    <_>
      <internalNodes>
        0 -1 124332 -6.2153739854693413e-03</internalNodes>
      <leafValues>
        -4.7651317715644836e-01 9.1173835098743439e-02</leafValues></_>
    <_>
      <internalNodes>
        0 -1 151746 4.9030743539333344e-02</internalNodes>
      <leafValues>
        7.8562773764133453e-02 -4.2588236927986145e-01</leafValues></_>
    <_>
      <internalNodes>
        0 -1 123691 3.1976103782653809e-03</internalNodes>
      <leafValues>
        4.7807395458221436e-02 -6.3030880689620972e-01</leafValues></_></weakClassifiers></stage11>
</opencv_storage>
