<?xml version="1.0"?>
<opencv_storage>
<stage13>
  <maxWeakCount>37</maxWeakCount>
  <stageThreshold>-1.1791433095932007e+00</stageThreshold>
  <weakClassifiers>
    <_>
      <internalNodes>
        0 -1 107294 6.8315513432025909e-02</internalNodes>
      <leafValues>
        -2.6366174221038818e-01 4.1064119338989258e-01</leafValues></_>
    <_>
      <internalNodes>
        0 -1 9024 -8.7372586131095886e-02</internalNodes>
      <leafValues>
        3.7744754552841187e-01 -1.5168894827365875e-01</leafValues></_>
    <_>
      <internalNodes>
        0 -1 97324 1.0371111333370209e-02</internalNodes>
      <leafValues>
        -1.0773120820522308e-01 4.9237725138664246e-01</leafValues></_>
    <_>
      <internalNodes>
        0 -1 152221 -2.0135220140218735e-02</internalNodes>
      <leafValues>
        3.3404362201690674e-01 -2.0499415695667267e-01</leafValues></_>
    <_>
      <internalNodes>
        0 -1 152221 2.1197233349084854e-02</internalNodes>
      <leafValues>
        -6.9652684032917023e-02 4.8529547452926636e-01</leafValues></_>
    <_>
      <internalNodes>
        0 -1 94699 -1.0570814833045006e-02</internalNodes>
      <leafValues>
        4.2240491509437561e-01 -1.4461691677570343e-01</leafValues></_>
    <_>
      <internalNodes>
        0 -1 149968 -2.5089643895626068e-02</internalNodes>
      <leafValues>
        6.0861068964004517e-01 -3.8221269845962524e-02</leafValues></_>
    <_>
      <internalNodes>
        0 -1 143498 1.9414752721786499e-02</internalNodes>
      <leafValues>
        1.0420858860015869e-01 -4.7711876034736633e-01</leafValues></_>
    <_>
      <internalNodes>
        0 -1 43679 -2.6134979724884033e-01</internalNodes>
      <leafValues>
        3.0268734693527222e-01 -1.3919469714164734e-01</leafValues></_>
    <_>
      <internalNodes>
        0 -1 57768 2.3057682812213898e-01</internalNodes>
      <leafValues>
        -1.0308930277824402e-01 4.4180035591125488e-01</leafValues></_>
    <_>
      <internalNodes>
        0 -1 136631 4.1361548937857151e-03</internalNodes>
      <leafValues>
        -1.7735134065151215e-01 2.5712373852729797e-01</leafValues></_>
    <_>
      <internalNodes>
        0 -1 86895 8.2031125202775002e-03</internalNodes>
      <leafValues>
        -9.5211245119571686e-02 4.1273826360702515e-01</leafValues></_>
    <_>
      <internalNodes>
        0 -1 83159 3.8377210497856140e-02</internalNodes>
      <leafValues>
        5.6583959609270096e-02 -6.3248705863952637e-01</leafValues></_>
    <_>
      <internalNodes>
        0 -1 94913 -5.4807458072900772e-02</internalNodes>
      <leafValues>
        -7.3186391592025757e-01 5.4481171071529388e-02</leafValues></_>
    <_>
      <internalNodes>
        0 -1 61317 -1.0965485125780106e-02</internalNodes>
      <leafValues>
        3.6233535408973694e-01 -1.2458389252424240e-01</leafValues></_>
    <_>
      <internalNodes>
        0 -1 126506 6.7217713221907616e-03</internalNodes>
      <leafValues>
        -8.6393192410469055e-02 3.8673651218414307e-01</leafValues></_>
    <_>
      <internalNodes>
        0 -1 98528 2.8188668191432953e-02</internalNodes>
      <leafValues>
        5.2481003105640411e-02 -6.7408311367034912e-01</leafValues></_>
    <_>
      <internalNodes>
        0 -1 168323 1.4473021030426025e-02</internalNodes>
      <leafValues>
        1.0541667789220810e-01 -4.1100430488586426e-01</leafValues></_>
    <_>
      <internalNodes>
        0 -1 151915 8.5564889013767242e-03</internalNodes>
      <leafValues>
        -1.1994951963424683e-01 3.4782829880714417e-01</leafValues></_>
    <_>
      <internalNodes>
        0 -1 156033 -1.0888678021728992e-02</internalNodes>
      <leafValues>
        3.4691700339317322e-01 -1.0370650142431259e-01</leafValues></_>
    <_>
      <internalNodes>
        0 -1 156654 5.4223006591200829e-03</internalNodes>
      <leafValues>
        -1.0456957668066025e-01 4.4072192907333374e-01</leafValues></_>
    <_>
      <internalNodes>
        0 -1 19129 -1.9097853451967239e-02</internalNodes>
      <leafValues>
        3.7303239107131958e-01 -1.0833724588155746e-01</leafValues></_>
    <_>
      <internalNodes>
        0 -1 164782 -1.5512908808887005e-02</internalNodes>
      <leafValues>
        3.8206285238265991e-01 -8.9480273425579071e-02</leafValues></_>
    <_>
      <internalNodes>
        0 -1 161711 1.2646349146962166e-02</internalNodes>
      <leafValues>
        -9.3263134360313416e-02 4.0642079710960388e-01</leafValues></_>
    <_>
      <internalNodes>
        0 -1 150362 6.0483943670988083e-03</internalNodes>
      <leafValues>
        -1.2038811296224594e-01 3.9339897036552429e-01</leafValues></_>
    <_>
      <internalNodes>
        0 -1 168323 -1.5195392072200775e-02</internalNodes>
      <leafValues>
        -4.8808094859123230e-01 8.4097661077976227e-02</leafValues></_>
    <_>
      <internalNodes>
        0 -1 174309 -3.5091680474579334e-03</internalNodes>
      <leafValues>
        4.7797182202339172e-01 -8.4613405168056488e-02</leafValues></_>
    <_>
      <internalNodes>
        0 -1 88391 -2.6607473846524954e-03</internalNodes>
      <leafValues>
        -7.7536731958389282e-01 5.4814599454402924e-02</leafValues></_>
    <_>
      <internalNodes>
        0 -1 178353 6.5740942955017090e-04</internalNodes>
      <leafValues>
        -1.4535832405090332e-01 2.7626618742942810e-01</leafValues></_>
    <_>
      <internalNodes>
        0 -1 21564 1.3319375924766064e-02</internalNodes>
      <leafValues>
        7.1158245205879211e-02 -6.2395751476287842e-01</leafValues></_>
    <_>
      <internalNodes>
        0 -1 6916 -8.9297518134117126e-03</internalNodes>
      <leafValues>
        -4.6794769167900085e-01 7.7486053109169006e-02</leafValues></_>
    <_>
      <internalNodes>
        0 -1 116239 -1.2575944885611534e-02</internalNodes>
      <leafValues>
        4.4637215137481689e-01 -8.9385129511356354e-02</leafValues></_>
    <_>
      <internalNodes>
        0 -1 142831 -4.6637691557407379e-03</internalNodes>
      <leafValues>
        -5.4752385616302490e-01 7.9617045819759369e-02</leafValues></_>
    <_>
      <internalNodes>
        0 -1 116791 4.6240575611591339e-03</internalNodes>
      <leafValues>
        -1.3359713554382324e-01 2.8781521320343018e-01</leafValues></_>
    <_>
      <internalNodes>
        0 -1 101001 3.1048251315951347e-02</internalNodes>
      <leafValues>
        -4.4410124421119690e-02 8.2310479879379272e-01</leafValues></_>
    <_>
      <internalNodes>
        0 -1 141505 6.3977958634495735e-03</internalNodes>
      <leafValues>
        6.7273736000061035e-02 -6.1385756731033325e-01</leafValues></_>
    <_>
      <internalNodes>
        0 -1 174916 -1.5210930723696947e-04</internalNodes>
      <leafValues>
        -2.6578590273857117e-01 1.2507434189319611e-01</leafValues></_></weakClassifiers></stage13>
</opencv_storage>
