<?xml version="1.0"?>
<opencv_storage>
<stage1>
  <maxWeakCount>15</maxWeakCount>
  <stageThreshold>-1.2570090293884277e+00</stageThreshold>
  <weakClassifiers>
    <_>
      <internalNodes>
        0 -1 97053 5.1922418177127838e-02</internalNodes>
      <leafValues>
        -2.8333333134651184e-01 6.4666664600372314e-01</leafValues></_>
    <_>
      <internalNodes>
        0 -1 127506 -2.5005407631397247e-02</internalNodes>
      <leafValues>
        6.2975680828094482e-01 -2.4909330904483795e-01</leafValues></_>
    <_>
      <internalNodes>
        0 -1 137559 3.4623239189386368e-02</internalNodes>
      <leafValues>
        -1.8308541178703308e-01 5.9800010919570923e-01</leafValues></_>
    <_>
      <internalNodes>
        0 -1 103923 -2.7393924072384834e-02</internalNodes>
      <leafValues>
        5.4039078950881958e-01 -2.3438544571399689e-01</leafValues></_>
    <_>
      <internalNodes>
        0 -1 127007 -3.7831682711839676e-03</internalNodes>
      <leafValues>
        6.0345280170440674e-01 -1.3217718899250031e-01</leafValues></_>
    <_>
      <internalNodes>
        0 -1 127007 3.4791359212249517e-03</internalNodes>
      <leafValues>
        -2.2781139612197876e-01 5.7407593727111816e-01</leafValues></_>
    <_>
      <internalNodes>
        0 -1 153033 -8.7805828079581261e-03</internalNodes>
      <leafValues>
        6.1166226863861084e-01 -9.1892525553703308e-02</leafValues></_>
    <_>
      <internalNodes>
        0 -1 165113 6.8025351502001286e-03</internalNodes>
      <leafValues>
        -1.3639502227306366e-01 6.2761366367340088e-01</leafValues></_>
    <_>
      <internalNodes>
        0 -1 108849 5.0318181514739990e-02</internalNodes>
      <leafValues>
        1.0971288383007050e-01 -6.9488650560379028e-01</leafValues></_>
    <_>
      <internalNodes>
        0 -1 4791 -1.2520021200180054e-01</internalNodes>
      <leafValues>
        5.5453979969024658e-01 -1.6501042246818542e-01</leafValues></_>
    <_>
      <internalNodes>
        0 -1 172357 5.1877297461032867e-02</internalNodes>
      <leafValues>
        -1.1558657139539719e-01 6.5546965599060059e-01</leafValues></_>
    <_>
      <internalNodes>
        0 -1 149488 6.8553984165191650e-03</internalNodes>
      <leafValues>
        -1.6041433811187744e-01 4.5054352283477783e-01</leafValues></_>
    <_>
      <internalNodes>
        0 -1 124298 -1.1114671360701323e-03</internalNodes>
      <leafValues>
        3.7364813685417175e-01 -1.6540367901325226e-01</leafValues></_>
    <_>
      <internalNodes>
        0 -1 104662 -3.6338502541184425e-03</internalNodes>
      <leafValues>
        4.9602273106575012e-01 -1.3978141546249390e-01</leafValues></_>
    <_>
      <internalNodes>
        0 -1 72797 -1.5630971174687147e-03</internalNodes>
      <leafValues>
        3.7859627604484558e-01 -1.7205899953842163e-01</leafValues></_></weakClassifiers></stage1>
</opencv_storage>
